digraph Tree {
node [shape=box, style="filled, rounded", color="black", fontname="helvetica"] ;
edge [fontname="helvetica"] ;
0 [label="petal length (cm) <= 2.6\ngini = 0.66\nsamples = 101\nvalue = [55, 48, 47]\nclass = setosa", fillcolor="#fdf6f1"] ;
1 [label="gini = 0.0\nsamples = 35\nvalue = [55, 0, 0]\nclass = setosa", fillcolor="#e58139"] ;
0 -> 1 [labeldistance=2.5, labelangle=45, headlabel="True"] ;
2 [label="petal length (cm) <= 4.75\ngini = 0.5\nsamples = 66\nvalue = [0, 48, 47]\nclass = versicolor", fillcolor="#fbfefc"] ;
0 -> 2 [labeldistance=2.5, labelangle=-45, headlabel="False"] ;
3 [label="petal width (cm) <= 1.65\ngini = 0.09\nsamples = 30\nvalue = [0, 42, 2]\nclass = versicolor", fillcolor="#42e687"] ;
2 -> 3 ;
4 [label="gini = 0.0\nsamples = 29\nvalue = [0, 42, 0]\nclass = versicolor", fillcolor="#39e581"] ;
3 -> 4 ;
5 [label="gini = 0.0\nsamples = 1\nvalue = [0, 0, 2]\nclass = virginica", fillcolor="#8139e5"] ;
3 -> 5 ;
6 [label="petal width (cm) <= 1.75\ngini = 0.21\nsamples = 36\nvalue = [0, 6, 45]\nclass = virginica", fillcolor="#9253e8"] ;
2 -> 6 ;
7 [label="petal length (cm) <= 5.45\ngini = 0.48\nsamples = 7\nvalue = [0, 6, 4]\nclass = versicolor", fillcolor="#bdf6d5"] ;
6 -> 7 ;
8 [label="sepal length (cm) <= 6.5\ngini = 0.38\nsamples = 6\nvalue = [0, 6, 2]\nclass = versicolor", fillcolor="#7beeab"] ;
7 -> 8 ;
9 [label="sepal width (cm) <= 2.35\ngini = 0.48\nsamples = 4\nvalue = [0, 3, 2]\nclass = versicolor", fillcolor="#bdf6d5"] ;
8 -> 9 ;
10 [label="gini = 0.0\nsamples = 1\nvalue = [0, 0, 1]\nclass = virginica", fillcolor="#8139e5"] ;
9 -> 10 ;
11 [label="sepal length (cm) <= 6.15\ngini = 0.38\nsamples = 3\nvalue = [0, 3, 1]\nclass = versicolor", fillcolor="#7beeab"] ;
9 -> 11 ;
12 [label="gini = 0.0\nsamples = 1\nvalue = [0, 2, 0]\nclass = versicolor", fillcolor="#39e581"] ;
11 -> 12 ;
13 [label="petal length (cm) <= 5.0\ngini = 0.5\nsamples = 2\nvalue = [0, 1, 1]\nclass = versicolor", fillcolor="#ffffff"] ;
11 -> 13 ;
14 [label="gini = 0.0\nsamples = 1\nvalue = [0, 1, 0]\nclass = versicolor", fillcolor="#39e581"] ;
13 -> 14 ;
15 [label="gini = 0.0\nsamples = 1\nvalue = [0, 0, 1]\nclass = virginica", fillcolor="#8139e5"] ;
13 -> 15 ;
16 [label="gini = 0.0\nsamples = 2\nvalue = [0, 3, 0]\nclass = versicolor", fillcolor="#39e581"] ;
8 -> 16 ;
17 [label="gini = 0.0\nsamples = 1\nvalue = [0, 0, 2]\nclass = virginica", fillcolor="#8139e5"] ;
7 -> 17 ;
18 [label="gini = 0.0\nsamples = 29\nvalue = [0, 0, 41]\nclass = virginica", fillcolor="#8139e5"] ;
6 -> 18 ;
}